digraph Tree {
node [shape=box, style="filled, rounded", color="black", fontname="helvetica"] ;
edge [fontname="helvetica"] ;
0 [label="temp <= 0.095\ngini = 0.5\nsamples = 413\nvalue = [203, 210]", fillcolor="#f8fcfe"] ;
1 [label="gini = 0.0\nsamples = 12\nvalue = [0, 12]", fillcolor="#399de5"] ;
0 -> 1 [labeldistance=2.5, labelangle=45, headlabel="True"] ;
2 [label="temp <= 0.571\ngini = 0.5\nsamples = 401\nvalue = [203, 198]", fillcolor="#fefcfa"] ;
0 -> 2 [labeldistance=2.5, labelangle=-45, headlabel="False"] ;
3 [label="DC <= 0.893\ngini = 0.487\nsamples = 210\nvalue = [122.0, 88.0]", fillcolor="#f8dcc8"] ;
2 -> 3 ;
4 [label="DMC <= 0.485\ngini = 0.477\nsamples = 188\nvalue = [114.0, 74.0]", fillcolor="#f6d3ba"] ;
3 -> 4 ;
5 [label="DMC <= 0.294\ngini = 0.491\nsamples = 159\nvalue = [90, 69]", fillcolor="#f9e2d1"] ;
4 -> 5 ;
6 [label="FFMC <= 0.951\ngini = 0.459\nsamples = 98\nvalue = [63.0, 35.0]", fillcolor="#f3c7a7"] ;
5 -> 6 ;
7 [label="RH <= 0.665\ngini = 0.483\nsamples = 86\nvalue = [51.0, 35.0]", fillcolor="#f7d7c1"] ;
6 -> 7 ;
8 [label="RH <= 0.441\ngini = 0.497\nsamples = 76\nvalue = [41, 35]", fillcolor="#fbede2"] ;
7 -> 8 ;
9 [label="DMC <= 0.13\ngini = 0.468\nsamples = 59\nvalue = [37, 22]", fillcolor="#f4ccaf"] ;
8 -> 9 ;
10 [label="wind <= 0.812\ngini = 0.361\nsamples = 38\nvalue = [29, 9]", fillcolor="#eda876"] ;
9 -> 10 ;
11 [label="gini = 0.313\nsamples = 36\nvalue = [29, 7]", fillcolor="#eb9f69"] ;
10 -> 11 ;
12 [label="gini = 0.0\nsamples = 2\nvalue = [0, 2]", fillcolor="#399de5"] ;
10 -> 12 ;
13 [label="RH <= 0.382\ngini = 0.472\nsamples = 21\nvalue = [8, 13]", fillcolor="#b3d9f5"] ;
9 -> 13 ;
14 [label="gini = 0.432\nsamples = 19\nvalue = [6, 13]", fillcolor="#94caf1"] ;
13 -> 14 ;
15 [label="gini = 0.0\nsamples = 2\nvalue = [2, 0]", fillcolor="#e58139"] ;
13 -> 15 ;
16 [label="temp <= 0.485\ngini = 0.36\nsamples = 17\nvalue = [4, 13]", fillcolor="#76bbed"] ;
8 -> 16 ;
17 [label="temp <= 0.112\ngini = 0.231\nsamples = 15\nvalue = [2, 13]", fillcolor="#57ace9"] ;
16 -> 17 ;
18 [label="gini = 0.444\nsamples = 3\nvalue = [2, 1]", fillcolor="#f2c09c"] ;
17 -> 18 ;
19 [label="gini = 0.0\nsamples = 12\nvalue = [0, 12]", fillcolor="#399de5"] ;
17 -> 19 ;
20 [label="gini = 0.0\nsamples = 2\nvalue = [2, 0]", fillcolor="#e58139"] ;
16 -> 20 ;
21 [label="gini = 0.0\nsamples = 10\nvalue = [10, 0]", fillcolor="#e58139"] ;
7 -> 21 ;
22 [label="gini = 0.0\nsamples = 12\nvalue = [12, 0]", fillcolor="#e58139"] ;
6 -> 22 ;
23 [label="DC <= 0.868\ngini = 0.493\nsamples = 61\nvalue = [27, 34]", fillcolor="#d6ebfa"] ;
5 -> 23 ;
24 [label="wind <= 0.394\ngini = 0.481\nsamples = 57\nvalue = [23, 34]", fillcolor="#bfdff7"] ;
23 -> 24 ;
25 [label="wind <= 0.076\ngini = 0.397\nsamples = 33\nvalue = [9, 24]", fillcolor="#83c2ef"] ;
24 -> 25 ;
26 [label="FFMC <= 0.939\ngini = 0.49\nsamples = 7\nvalue = [4, 3]", fillcolor="#f8e0ce"] ;
25 -> 26 ;
27 [label="gini = 0.0\nsamples = 2\nvalue = [2, 0]", fillcolor="#e58139"] ;
26 -> 27 ;
28 [label="RH <= 0.212\ngini = 0.48\nsamples = 5\nvalue = [2, 3]", fillcolor="#bddef6"] ;
26 -> 28 ;
29 [label="gini = 0.0\nsamples = 1\nvalue = [0, 1]", fillcolor="#399de5"] ;
28 -> 29 ;
30 [label="gini = 0.5\nsamples = 4\nvalue = [2, 2]", fillcolor="#ffffff"] ;
28 -> 30 ;
31 [label="ISI <= 0.165\ngini = 0.311\nsamples = 26\nvalue = [5, 21]", fillcolor="#68b4eb"] ;
25 -> 31 ;
32 [label="ISI <= 0.16\ngini = 0.388\nsamples = 19\nvalue = [5, 14]", fillcolor="#80c0ee"] ;
31 -> 32 ;
33 [label="gini = 0.346\nsamples = 18\nvalue = [4, 14]", fillcolor="#72b9ec"] ;
32 -> 33 ;
34 [label="gini = 0.0\nsamples = 1\nvalue = [1, 0]", fillcolor="#e58139"] ;
32 -> 34 ;
35 [label="gini = 0.0\nsamples = 7\nvalue = [0, 7]", fillcolor="#399de5"] ;
31 -> 35 ;
36 [label="wind <= 0.606\ngini = 0.486\nsamples = 24\nvalue = [14, 10]", fillcolor="#f8dbc6"] ;
24 -> 36 ;
37 [label="DC <= 0.841\ngini = 0.391\nsamples = 15\nvalue = [11, 4]", fillcolor="#eeaf81"] ;
36 -> 37 ;
38 [label="DMC <= 0.319\ngini = 0.165\nsamples = 11\nvalue = [10, 1]", fillcolor="#e88e4d"] ;
37 -> 38 ;
39 [label="gini = 0.5\nsamples = 2\nvalue = [1, 1]", fillcolor="#ffffff"] ;
38 -> 39 ;
40 [label="gini = 0.0\nsamples = 9\nvalue = [9, 0]", fillcolor="#e58139"] ;
38 -> 40 ;
41 [label="wind <= 0.447\ngini = 0.375\nsamples = 4\nvalue = [1, 3]", fillcolor="#7bbeee"] ;
37 -> 41 ;
42 [label="gini = 0.0\nsamples = 1\nvalue = [1, 0]", fillcolor="#e58139"] ;
41 -> 42 ;
43 [label="gini = 0.0\nsamples = 3\nvalue = [0, 3]", fillcolor="#399de5"] ;
41 -> 43 ;
44 [label="FFMC <= 0.928\ngini = 0.444\nsamples = 9\nvalue = [3, 6]", fillcolor="#9ccef2"] ;
36 -> 44 ;
45 [label="wind <= 0.659\ngini = 0.444\nsamples = 3\nvalue = [2, 1]", fillcolor="#f2c09c"] ;
44 -> 45 ;
46 [label="gini = 0.0\nsamples = 1\nvalue = [0, 1]", fillcolor="#399de5"] ;
45 -> 46 ;
47 [label="gini = 0.0\nsamples = 2\nvalue = [2, 0]", fillcolor="#e58139"] ;
45 -> 47 ;
48 [label="temp <= 0.558\ngini = 0.278\nsamples = 6\nvalue = [1, 5]", fillcolor="#61b1ea"] ;
44 -> 48 ;
49 [label="gini = 0.0\nsamples = 4\nvalue = [0, 4]", fillcolor="#399de5"] ;
48 -> 49 ;
50 [label="gini = 0.5\nsamples = 2\nvalue = [1, 1]", fillcolor="#ffffff"] ;
48 -> 50 ;
51 [label="gini = 0.0\nsamples = 4\nvalue = [4, 0]", fillcolor="#e58139"] ;
23 -> 51 ;
52 [label="ISI <= 0.241\ngini = 0.285\nsamples = 29\nvalue = [24, 5]", fillcolor="#ea9b62"] ;
4 -> 52 ;
53 [label="DC <= 0.394\ngini = 0.204\nsamples = 26\nvalue = [23, 3]", fillcolor="#e89153"] ;
52 -> 53 ;
54 [label="gini = 0.0\nsamples = 1\nvalue = [0, 1]", fillcolor="#399de5"] ;
53 -> 54 ;
55 [label="DC <= 0.8\ngini = 0.147\nsamples = 25\nvalue = [23, 2]", fillcolor="#e78c4a"] ;
53 -> 55 ;
56 [label="gini = 0.0\nsamples = 15\nvalue = [15, 0]", fillcolor="#e58139"] ;
55 -> 56 ;
57 [label="wind <= 0.418\ngini = 0.32\nsamples = 10\nvalue = [8, 2]", fillcolor="#eca06a"] ;
55 -> 57 ;
58 [label="gini = 0.0\nsamples = 5\nvalue = [5, 0]", fillcolor="#e58139"] ;
57 -> 58 ;
59 [label="RH <= 0.565\ngini = 0.48\nsamples = 5\nvalue = [3, 2]", fillcolor="#f6d5bd"] ;
57 -> 59 ;
60 [label="gini = 0.0\nsamples = 1\nvalue = [0, 1]", fillcolor="#399de5"] ;
59 -> 60 ;
61 [label="RH <= 0.629\ngini = 0.375\nsamples = 4\nvalue = [3, 1]", fillcolor="#eeab7b"] ;
59 -> 61 ;
62 [label="gini = 0.444\nsamples = 3\nvalue = [2, 1]", fillcolor="#f2c09c"] ;
61 -> 62 ;
63 [label="gini = 0.0\nsamples = 1\nvalue = [1, 0]", fillcolor="#e58139"] ;
61 -> 63 ;
64 [label="RH <= 0.418\ngini = 0.444\nsamples = 3\nvalue = [1, 2]", fillcolor="#9ccef2"] ;
52 -> 64 ;
65 [label="gini = 0.0\nsamples = 1\nvalue = [1, 0]", fillcolor="#e58139"] ;
64 -> 65 ;
66 [label="gini = 0.0\nsamples = 2\nvalue = [0, 2]", fillcolor="#399de5"] ;
64 -> 66 ;
67 [label="FFMC <= 0.92\ngini = 0.463\nsamples = 22\nvalue = [8, 14]", fillcolor="#aad5f4"] ;
3 -> 67 ;
68 [label="ISI <= 0.086\ngini = 0.375\nsamples = 4\nvalue = [3, 1]", fillcolor="#eeab7b"] ;
67 -> 68 ;
69 [label="gini = 0.0\nsamples = 1\nvalue = [0, 1]", fillcolor="#399de5"] ;
68 -> 69 ;
70 [label="gini = 0.0\nsamples = 3\nvalue = [3, 0]", fillcolor="#e58139"] ;
68 -> 70 ;
71 [label="RH <= 0.147\ngini = 0.401\nsamples = 18\nvalue = [5, 13]", fillcolor="#85c3ef"] ;
67 -> 71 ;
72 [label="gini = 0.0\nsamples = 1\nvalue = [1, 0]", fillcolor="#e58139"] ;
71 -> 72 ;
73 [label="wind <= 0.235\ngini = 0.36\nsamples = 17\nvalue = [4, 13]", fillcolor="#76bbed"] ;
71 -> 73 ;
74 [label="RH <= 0.229\ngini = 0.49\nsamples = 7\nvalue = [3, 4]", fillcolor="#cee6f8"] ;
73 -> 74 ;
75 [label="gini = 0.0\nsamples = 1\nvalue = [1, 0]", fillcolor="#e58139"] ;
74 -> 75 ;
76 [label="DC <= 0.936\ngini = 0.444\nsamples = 6\nvalue = [2, 4]", fillcolor="#9ccef2"] ;
74 -> 76 ;
77 [label="wind <= 0.182\ngini = 0.48\nsamples = 5\nvalue = [2, 3]", fillcolor="#bddef6"] ;
76 -> 77 ;
78 [label="temp <= 0.44\ngini = 0.375\nsamples = 4\nvalue = [1, 3]", fillcolor="#7bbeee"] ;
77 -> 78 ;
79 [label="gini = 0.0\nsamples = 1\nvalue = [1, 0]", fillcolor="#e58139"] ;
78 -> 79 ;
80 [label="gini = 0.0\nsamples = 3\nvalue = [0, 3]", fillcolor="#399de5"] ;
78 -> 80 ;
81 [label="gini = 0.0\nsamples = 1\nvalue = [1, 0]", fillcolor="#e58139"] ;
77 -> 81 ;
82 [label="gini = 0.0\nsamples = 1\nvalue = [0, 1]", fillcolor="#399de5"] ;
76 -> 82 ;
83 [label="RH <= 0.724\ngini = 0.18\nsamples = 10\nvalue = [1, 9]", fillcolor="#4fa8e8"] ;
73 -> 83 ;
84 [label="gini = 0.0\nsamples = 8\nvalue = [0, 8]", fillcolor="#399de5"] ;
83 -> 84 ;
85 [label="gini = 0.5\nsamples = 2\nvalue = [1, 1]", fillcolor="#ffffff"] ;
83 -> 85 ;
86 [label="RH <= 0.112\ngini = 0.488\nsamples = 191\nvalue = [81.0, 110.0]", fillcolor="#cbe5f8"] ;
2 -> 86 ;
87 [label="FFMC <= 0.979\ngini = 0.291\nsamples = 17\nvalue = [14, 3]", fillcolor="#eb9c63"] ;
86 -> 87 ;
88 [label="RH <= 0.012\ngini = 0.142\nsamples = 13\nvalue = [12, 1]", fillcolor="#e78c49"] ;
87 -> 88 ;
89 [label="gini = 0.5\nsamples = 2\nvalue = [1, 1]", fillcolor="#ffffff"] ;
88 -> 89 ;
90 [label="gini = 0.0\nsamples = 11\nvalue = [11, 0]", fillcolor="#e58139"] ;
88 -> 90 ;
91 [label="RH <= 0.076\ngini = 0.5\nsamples = 4\nvalue = [2, 2]", fillcolor="#ffffff"] ;
87 -> 91 ;
92 [label="gini = 0.0\nsamples = 2\nvalue = [2, 0]", fillcolor="#e58139"] ;
91 -> 92 ;
93 [label="gini = 0.0\nsamples = 2\nvalue = [0, 2]", fillcolor="#399de5"] ;
91 -> 93 ;
94 [label="temp <= 0.581\ngini = 0.474\nsamples = 174\nvalue = [67, 107]", fillcolor="#b5daf5"] ;
86 -> 94 ;
95 [label="gini = 0.0\nsamples = 6\nvalue = [0, 6]", fillcolor="#399de5"] ;
94 -> 95 ;
96 [label="DMC <= 0.718\ngini = 0.48\nsamples = 168\nvalue = [67, 101]", fillcolor="#bcdef6"] ;
94 -> 96 ;
97 [label="DC <= 0.582\ngini = 0.467\nsamples = 148\nvalue = [55, 93]", fillcolor="#aed7f4"] ;
96 -> 97 ;
98 [label="temp <= 0.718\ngini = 0.493\nsamples = 25\nvalue = [14.0, 11.0]", fillcolor="#f9e4d5"] ;
97 -> 98 ;
99 [label="ISI <= 0.13\ngini = 0.401\nsamples = 18\nvalue = [13, 5]", fillcolor="#efb185"] ;
98 -> 99 ;
100 [label="temp <= 0.681\ngini = 0.375\nsamples = 4\nvalue = [1, 3]", fillcolor="#7bbeee"] ;
99 -> 100 ;
101 [label="gini = 0.0\nsamples = 3\nvalue = [0, 3]", fillcolor="#399de5"] ;
100 -> 101 ;
102 [label="gini = 0.0\nsamples = 1\nvalue = [1, 0]", fillcolor="#e58139"] ;
100 -> 102 ;
103 [label="wind <= 0.818\ngini = 0.245\nsamples = 14\nvalue = [12, 2]", fillcolor="#e9965a"] ;
99 -> 103 ;
104 [label="RH <= 0.153\ngini = 0.142\nsamples = 13\nvalue = [12, 1]", fillcolor="#e78c49"] ;
103 -> 104 ;
105 [label="gini = 0.444\nsamples = 3\nvalue = [2, 1]", fillcolor="#f2c09c"] ;
104 -> 105 ;
106 [label="gini = 0.0\nsamples = 10\nvalue = [10, 0]", fillcolor="#e58139"] ;
104 -> 106 ;
107 [label="gini = 0.0\nsamples = 1\nvalue = [0, 1]", fillcolor="#399de5"] ;
103 -> 107 ;
108 [label="ISI <= 0.223\ngini = 0.245\nsamples = 7\nvalue = [1, 6]", fillcolor="#5aade9"] ;
98 -> 108 ;
109 [label="gini = 0.0\nsamples = 6\nvalue = [0, 6]", fillcolor="#399de5"] ;
108 -> 109 ;
110 [label="gini = 0.0\nsamples = 1\nvalue = [1, 0]", fillcolor="#e58139"] ;
108 -> 110 ;
111 [label="DC <= 0.683\ngini = 0.444\nsamples = 123\nvalue = [41, 82]", fillcolor="#9ccef2"] ;
97 -> 111 ;
112 [label="gini = 0.0\nsamples = 18\nvalue = [0, 18]", fillcolor="#399de5"] ;
111 -> 112 ;
113 [label="RH <= 0.135\ngini = 0.476\nsamples = 105\nvalue = [41, 64]", fillcolor="#b8dcf6"] ;
111 -> 113 ;
114 [label="gini = 0.0\nsamples = 5\nvalue = [0, 5]", fillcolor="#399de5"] ;
113 -> 114 ;
115 [label="FFMC <= 0.948\ngini = 0.484\nsamples = 100\nvalue = [41, 59]", fillcolor="#c3e1f7"] ;
113 -> 115 ;
116 [label="RH <= 0.3\ngini = 0.441\nsamples = 61\nvalue = [20, 41]", fillcolor="#9acdf2"] ;
115 -> 116 ;
117 [label="gini = 0.361\nsamples = 38\nvalue = [9, 29]", fillcolor="#76bbed"] ;
116 -> 117 ;
118 [label="gini = 0.499\nsamples = 23\nvalue = [11, 12]", fillcolor="#eff7fd"] ;
116 -> 118 ;
119 [label="wind <= 0.606\ngini = 0.497\nsamples = 39\nvalue = [21, 18]", fillcolor="#fbede3"] ;
115 -> 119 ;
120 [label="gini = 0.48\nsamples = 35\nvalue = [21, 14]", fillcolor="#f6d5bd"] ;
119 -> 120 ;
121 [label="gini = 0.0\nsamples = 4\nvalue = [0, 4]", fillcolor="#399de5"] ;
119 -> 121 ;
122 [label="temp <= 0.697\ngini = 0.48\nsamples = 20\nvalue = [12, 8]", fillcolor="#f6d5bd"] ;
96 -> 122 ;
123 [label="temp <= 0.591\ngini = 0.486\nsamples = 12\nvalue = [5, 7]", fillcolor="#c6e3f8"] ;
122 -> 123 ;
124 [label="gini = 0.0\nsamples = 3\nvalue = [3, 0]", fillcolor="#e58139"] ;
123 -> 124 ;
125 [label="FFMC <= 0.934\ngini = 0.346\nsamples = 9\nvalue = [2, 7]", fillcolor="#72b9ec"] ;
123 -> 125 ;
126 [label="gini = 0.0\nsamples = 1\nvalue = [1, 0]", fillcolor="#e58139"] ;
125 -> 126 ;
127 [label="RH <= 0.271\ngini = 0.219\nsamples = 8\nvalue = [1, 7]", fillcolor="#55abe9"] ;
125 -> 127 ;
128 [label="gini = 0.5\nsamples = 2\nvalue = [1, 1]", fillcolor="#ffffff"] ;
127 -> 128 ;
129 [label="gini = 0.0\nsamples = 6\nvalue = [0, 6]", fillcolor="#399de5"] ;
127 -> 129 ;
130 [label="RH <= 0.171\ngini = 0.219\nsamples = 8\nvalue = [7, 1]", fillcolor="#e99355"] ;
122 -> 130 ;
131 [label="wind <= 0.312\ngini = 0.5\nsamples = 2\nvalue = [1, 1]", fillcolor="#ffffff"] ;
130 -> 131 ;
132 [label="gini = 0.0\nsamples = 1\nvalue = [1, 0]", fillcolor="#e58139"] ;
131 -> 132 ;
133 [label="gini = 0.0\nsamples = 1\nvalue = [0, 1]", fillcolor="#399de5"] ;
131 -> 133 ;
134 [label="gini = 0.0\nsamples = 6\nvalue = [6, 0]", fillcolor="#e58139"] ;
130 -> 134 ;
}